nn
26,30,30,26
dIn
0
dIntern
,
dOut
,
normP
7.82897574671,3.39705328372,1.41156225232,1.8579799994,1.64257757641,1.0,1.28416474078,1.0,1.0,1.0,1.0,1.0,1.0,1.0,1.0,1.0,1.0,1.0,1.0,1.0,1.0,1.0,1.0,1.0,1.0,1.0
normY
7.49183617594,3.74097648874,1.09665446449,1.60293390212,1.10606500244,1.0571407612,1.0,1.0,1.0,1.0,1.0,1.0,1.0,1.0,1.0,1.0,1.0,1.0,1.0,1.0,1.0,1.0,1.0,1.0,1.0,1.0
w
1.5592886257439559916093685387750156223773956298828125000
-1.2738173085988437893689706470468081533908843994140625000
0.5134383326825311399943529977463185787200927734375000000
0.4118666755947724689157496413827175274491310119628906250
-3.4044680539572111932500320108374580740928649902343750000
-0.6296806268601423672848227397480513900518417358398437500
0.3740097618079236130306242102960823103785514831542968750
-0.4239599136540664336969541636790381744503974914550781250
0.5395935209166455859275401962804608047008514404296875000
-0.1888276479511443728398489838582463562488555908203125000
1.7069399884699494318596180164604447782039642333984375000
2.6787712380929145083996445464435964822769165039062500000
0.1621086603891662147880481370521010830998420715332031250
2.2313759944843187810192830511368811130523681640625000000
1.0871357135010544237019303182023577392101287841796875000
0.4879778551662544150424594135984079912304878234863281250
-2.1141040388804515082199486641911789774894714355468750000
0.4233800928810379504696470576163846999406814575195312500
2.8296709143210327930262337758904322981834411621093750000
0.9421887665346727613879806995100807398557662963867187500
-1.1905363110077726851443458144785836338996887207031250000
-0.6132892755308738674813184843515045940876007080078125000
-2.3639315019587519017818522115703672170639038085937500000
0.2746269464342865340711341559654101729393005371093750000
-0.2160646446656833974397926567689864896237850189208984375
2.5039154365500260190913195401662960648536682128906250000
-2.5814010862324132666856257856125012040138244628906250000
-0.5852196683410424427052021201234310865402221679687500000
0.7676201506899449356069453642703592777252197265625000000
0.3230732245732578222785491561808157712221145629882812500
-1.0153481228904841504601108681526966392993927001953125000
-1.1166962971441765084534836205421015620231628417968750000
-1.0734752939763874124423637113068252801895141601562500000
-1.0060450871911112979972813263884745538234710693359375000
0.7753424786160224568831722535833250731229782104492187500
1.2436971161943828345641804844490252435207366943359375000
0.3080316543774819226797490046010352671146392822265625000
0.6074191582343438922109157829254399985074996948242187500
5.5565011011598439694125772803090512752532958984375000000
-0.7788206905614566410989141331810969859361648559570312500
-0.0355781924086455217381974591717153089120984077453613281
-1.9078813477496219253026765727554447948932647705078125000
-1.0240424897725490804845094316988252103328704833984375000
-1.0969943136924973359214163792785257101058959960937500000
0.9966860350414293856502467860991600900888442993164062500
0.7828339029993648390259863845130894333124160766601562500
0.7879152260180435352054928443976677954196929931640625000
-0.5231592234964701493282746014301665127277374267578125000
-1.0280222375768353071379124230588786303997039794921875000
0.7248076822832556498354961149743758141994476318359375000
0.7878949254333650342729811200115364044904708862304687500
-1.4814346868903693899000018063816241919994354248046875000
-0.6125769451210556493236936148605309426784515380859375000
-0.6889216643015232399704927956918254494667053222656250000
0.6684458290553080272999864064331632107496261596679687500
-1.3138824360914969080482705976464785635471343994140625000
0.0234754528153813327162602320186124416068196296691894531
-0.1675724997999687715388716924280743114650249481201171875
0.6048101545093933495422788837458938360214233398437500000
0.5509379351999822427288222570496145635843276977539062500
0.7482955789518422884398773931025061756372451782226562500
1.3872448672934547531099269690457731485366821289062500000
0.4205385270794511076708488417352782562375068664550781250
-0.1854294146281835753420352830289630219340324401855468750
-0.2324613203071103639807404306338867172598838806152343750
-1.2947841495175880233148291154066100716590881347656250000
-0.0169185904509763507252984027218190021812915802001953125
-0.4270693711389776381359695278661092743277549743652343750
-0.2452945462915098184808471160067711025476455688476562500
-0.6556877228862687534416409107507206499576568603515625000
0.0348943196425815921335455982443818356841802597045898438
-0.4142584688451505514628081527916947379708290100097656250
-0.2403359436096938195337457955247373320162296295166015625
-0.0026373479801018052254280021884369489271193742752075195
0.1746940390455808400638204602728364989161491394042968750
0.9098337334976785983897684673138428479433059692382812500
-0.8588431567339305239272562175756320357322692871093750000
0.1811646349960603363804523269209312275052070617675781250
2.0304565441190001173765722342068329453468322753906250000
-0.2440472982755075848082526590587804093956947326660156250
-0.6326255929244914977260805244441144168376922607421875000
-0.4198999824213131559780265433801105245947837829589843750
-1.5269085527698162962906280881725251674652099609375000000
-0.2392526659336860483939801724773133173584938049316406250
0.3644003533063048805296091359195997938513755798339843750
1.0115685966733860556843183076125569641590118408203125000
-0.1546149788712244399491169133398216217756271362304687500
-0.6184689909077353275890231998346280306577682495117187500
0.6693865354376412613035540744022000581026077270507812500
-0.2173433802026175087895865090104052796959877014160156250
0.1064944103296715516293602377118077129125595092773437500
-0.2214449410739349199950254387658787891268730163574218750
-0.3323062890268352331801793297927360981702804565429687500
0.6144106068643397922102167285629548132419586181640625000
2.0016651943081895659304336732020601630210876464843750000
-0.7782902652646105368106077548873145133256912231445312500
-0.0386665280464304553231791317102761240676045417785644531
1.3532259568785234282728424659580923616886138916015625000
0.4745547687080820531413394292030716314911842346191406250
0.9298441247539573906166765482339542359113693237304687500
0.2363623624212835838687141176706063561141490936279296875
0.9418828212719494441529377581900916993618011474609375000
0.4998306271265003375425806098064640536904335021972656250
0.6649895932556637578869640492484904825687408447265625000
0.4337038330956609621935626819322351366281509399414062500
0.7921278443322447015972898043401073664426803588867187500
-1.8681669365532183046951786309364251792430877685546875000
-0.0551100495647454322045710739530477439984679222106933594
1.6958673462297997325265441759256646037101745605468750000
-0.8240922328723624401547453999228309839963912963867187500
0.4617298565020833689409585076646180823445320129394531250
0.8262263599727144303130899061216041445732116699218750000
-1.9859888845257418488188250194070860743522644042968750000
1.3999495873461491601830175568466074764728546142578125000
-0.6225533054191824122725051893212366849184036254882812500
0.9618166316960435890948133419442456215620040893554687500
1.4807221022029664059260767317027784883975982666015625000
1.0650318821129527435687123215757310390472412109375000000
-0.9423443853417627913415799412177875638008117675781250000
-0.5571000186861619907219278502452652901411056518554687500
0.7223116962014355380006236373446881771087646484375000000
-2.0488369891908235764788059896090999245643615722656250000
-1.0117091687392922860766475423588417470455169677734375000
0.0239758724945041724885275158385411486960947513580322266
-0.7510885573355060573774721888185013085603713989257812500
-0.2302392728761304963036593562719644978642463684082031250
-0.0025744787142612194502655498240528686437755823135375977
0.2053386568861203520519609355687862262129783630371093750
-1.9391392117884593826460104537545703351497650146484375000
0.2887642286167975691490994449850404635071754455566406250
0.2564418491869179250741694886528421193361282348632812500
0.0985855821968112389086513758229557424783706665039062500
-0.2493537662071616534120721553335897624492645263671875000
0.8070016855891164464509301978978328406810760498046875000
-0.0760997796609036852855112442739482503384351730346679688
0.0643890472712188577375513887091074138879776000976562500
-1.0658361658937942628710970893735066056251525878906250000
-0.7726826485871789440551538064028136432170867919921875000
1.2739132124412468893837058203644119203090667724609375000
0.0195542930471357713495539343284690403379499912261962891
-0.1022051177747784755922566546360030770301818847656250000
-1.9618371284652151853578061491134576499462127685546875000
4.4034945296085243882089343969710171222686767578125000000
-0.2340358470902255683121495621890062466263771057128906250
0.3250780780920886625651178292173426598310470581054687500
0.5842495262764872965277618277468718588352203369140625000
-0.3208216059074936454820203834970016032457351684570312500
0.9478562846878840764119900086370762437582015991210937500
-0.4790064336544541667706198495579883456230163574218750000
0.2022203599014658070842642700881697237491607666015625000
0.1978708108458695491549406142439693212509155273437500000
-1.4118010480128559969159596221288666129112243652343750000
0.4972627540100751919460719818744109943509101867675781250
-0.3454363171662593323674173007020726799964904785156250000
0.5842515311386430321149987321405205875635147094726562500
0.4577524507205725234904036824445938691496849060058593750
0.9633380640062152444613730040146037936210632324218750000
-0.5982931232367382223813478958618361502885818481445312500
1.8040093383057760334509111999068409204483032226562500000
0.0286270395182080354679055034239354426972568035125732422
0.7723271194202283584928636628319509327411651611328125000
-0.4057880079053412525347255268570734187960624694824218750
-0.4075124267689744783638161607086658477783203125000000000
-0.3243262029272874213958743894181679934263229370117187500
0.6690763566925366223614446425926871597766876220703125000
-1.0708448454342252009752201047376729547977447509765625000
0.5448350515486598544256935383600648492574691772460937500
-0.2544814120523359313175149054586654528975486755371093750
-0.6260677875501967637461575577617622911930084228515625000
1.3607648166899906083671112355659715831279754638671875000
0.7290355890966123686425248706655111163854598999023437500
0.9408411328396972805876430356875061988830566406250000000
1.3809722457551578678192072402453050017356872558593750000
-0.7185457060099066373126674989180173724889755249023437500
0.7483946506904308737517794725135900080204010009765625000
0.0582182850095539772272701384281390346586704254150390625
-0.0254215096394195191886744567000278038904070854187011719
0.7517060013670815443731498817214742302894592285156250000
0.3669344565941709546130766739224782213568687438964843750
0.2685664175486988658470011159806745126843452453613281250
0.1043860672736275918559556430409429594874382019042968750
2.3557385201985616696163106098538264632225036621093750000
-0.2245739765398299947474214377507450990378856658935546875
0.5520192276762660998912224386003799736499786376953125000
-1.3095889314751028020822332109673880040645599365234375000
-0.9485236369472231920951799111207947134971618652343750000
-1.1204665468454721999336243243305943906307220458984375000
0.8677618112002871697541195317171514034271240234375000000
-0.8103715580242309979297488098382018506526947021484375000
0.3117868109681034560765056085074320435523986816406250000
-0.1110668121597360447072588840455864556133747100830078125
-0.3296327635668632183296722359955310821533203125000000000
0.0255402429048066648142878420912893489003181457519531250
0.4591934975205975710821348911849781870841979980468750000
-0.3784050883178198820822046855028020218014717102050781250
0.4295270598014463980796051600918872281908988952636718750
-0.7513752264862157970171097076672594994306564331054687500
-0.4797441907468734112462982466240646317601203918457031250
0.3289186123283229234992575129581382498145103454589843750
0.1034338373423844270604377015843056142330169677734375000
-0.6193101805999526865420534704753663390874862670898437500
-0.9840657279980423721710280915431212633848190307617187500
-2.0967382189604406583782747475197538733482360839843750000
0.4017030206753917642714668545522727072238922119140625000
0.1393391325792921464632456718391040340065956115722656250
0.4328715879984164627281018056237371638417243957519531250
-0.5387439309502806139562380849383771419525146484375000000
0.3741014021915229359471766201750142499804496765136718750
-0.1864610969303970300359196698991581797599792480468750000
-0.1231920378087670020494925893217441625893115997314453125
-0.3742941948178806210734137494000606238842010498046875000
0.0928192700929156566669320227447315119206905364990234375
0.4751349093581375138128919388691429048776626586914062500
-0.8254700169572022350195084072765894234180450439453125000
0.6807633956758054605273855486302636563777923583984375000
-0.1008771849867653169763315190721186809241771697998046875
0.0308980509761230814902432939561549574136734008789062500
1.5862018820341965419373764234478585422039031982421875000
-0.0070818833223559064793395378956120111979544162750244141
-0.3802254602342058920072531691403128206729888916015625000
-0.5515626222523819510712428382248617708683013916015625000
-0.3538287366469758943310353060951456427574157714843750000
-0.4377662630179363634219669165759114548563957214355468750
-0.5491254217314274210792746089282445609569549560546875000
0.4446164261792110994342408503143815323710441589355468750
-0.0309524368261629781451382825707696611061692237854003906
1.1536947232868199897382055496564134955406188964843750000
-0.5273548690407781069922066308208741247653961181640625000
-2.5837621002439887796242601325502619147300720214843750000
0.0294920639973556483748318157722678733989596366882324219
0.7561889856612244997791094647254794836044311523437500000
0.6302647032913598623693474110041279345750808715820312500
2.7690636437620996801456385583151131868362426757812500000
0.0866782920986922944539543323116959072649478912353515625
0.2906251507793188859629651688010198995471000671386718750
-0.2698574313337732677453573160164523869752883911132812500
-0.1585918189642018527596434296356164850294589996337890625
-0.2994509881160249964437980452203191816806793212890625000
0.9170971765011247667231941704812925308942794799804687500
-0.5889287213994482961254561814712360501289367675781250000
-0.1461181647285111906420240757142892107367515563964843750
-0.2794422305994529454054031702980864793062210083007812500
0.4705515444796440904795531423587817698717117309570312500
0.3238586331774229165603173896670341491699218750000000000
-0.7730459789621211275090217895922251045703887939453125000
0.1032739735752744303365346922873868606984615325927734375
-0.2432696831689405703169626349335885606706142425537109375
0.0570791833454814198645088652028789510950446128845214844
3.0959812153624852726352401077747344970703125000000000000
-0.0782517059624414923479918115845066495239734649658203125
-0.5989650319175100490198815350595396012067794799804687500
-0.1520080077113950545175669049058342352509498596191406250
0.7262405494036716646633067284710705280303955078125000000
-0.4317566969675367127834419989085290580987930297851562500
-0.0351294027042095488577722051104501588270068168640136719
-1.2386894143666504763956481838249601423740386962890625000
-0.5886608936524556634495297657849732786417007446289062500
1.2020249870989760943018609395949169993400573730468750000
0.1245463585577898379952443974616471678018569946289062500
0.9109885094056763277237109832640271633863449096679687500
0.2617270531959861590287630406237440183758735656738281250
0.5583505552011565065129161666845902800559997558593750000
-0.9698300563851289801675648050149902701377868652343750000
-0.4410941764849459767461326009652111679315567016601562500
0.3843326886624454097329817159334197640419006347656250000
0.7546215835614537015274549958121497184038162231445312500
1.0543991993635828396946862994809634983539581298828125000
0.0532313053987067824612822164453973527997732162475585938
0.3876363538844513345615894195361761376261711120605468750
-0.3823935968632132254008126892586005851626396179199218750
0.0289760416892463554261460956240625819191336631774902344
0.6825647497684751430213623279996681958436965942382812500
-0.9358103314230100666648581864137668162584304809570312500
-0.7184153726936252093437929033825639635324478149414062500
-0.0214412812716388914702214663066115463152527809143066406
-0.5190173812209498693803766400378663092851638793945312500
-1.8342337430414208387929875243571586906909942626953125000
0.5527244340170878178497559929382987320423126220703125000
-3.7749180489646727565400396997574716806411743164062500000
-0.9106773320222525391898216184927150607109069824218750000
-0.0141399657316742463630809822916489792987704277038574219
-0.2786388347117162433974613122700247913599014282226562500
-0.1451999305583420996068610975271440111100673675537109375
-0.0440036082916062526448897074260457884520292282104492188
1.4816679301368782528669498788076452910900115966796875000
-0.0474623762853550248963507840471720555797219276428222656
-0.9003682157444964362369432819832582026720046997070312500
0.3024088178056331122078859152679797261953353881835937500
-0.4704133473392132502866047616407740861177444458007812500
0.9770006437713245617260326980613172054290771484375000000
0.3059247703048317279517220868001459166407585144042968750
-0.6516360047845641823016649141209200024604797363281250000
3.1323084452077707418027330277254804968833923339843750000
0.4741008922303273642739895876729860901832580566406250000
0.0685037470526335123821581873926334083080291748046875000
-0.0944528197118538193066683561482932418584823608398437500
1.9548015801153695303327140209148637950420379638671875000
-0.6051192895712381725203954374592285603284835815429687500
0.5602961439060624160291013140522409230470657348632812500
0.5635707746515701277445486994110979139804840087890625000
0.5181358148927780460368808235216420143842697143554687500
1.6148745372521371432839032422634772956371307373046875000
-0.6676950875781105798623116243106778711080551147460937500
-0.0683662163145276058351385017886059358716011047363281250
0.9601823488242962056915530411060899496078491210937500000
-1.1459797323790363865469998927437700331211090087890625000
-0.1033371728895174368467735348531277850270271301269531250
1.0297792170785897702955935528734698891639709472656250000
-0.3034553670668707070490199839696288108825683593750000000
-0.2665779094075409472175408609473379328846931457519531250
0.1427616818270021625814081289718160405755043029785156250
-0.3803375054071937988453555590240284800529479980468750000
0.3598913195511697638018233647017041221261024475097656250
-0.8002476922032664141681834735209122300148010253906250000
1.5031423153222467359313441193080507218837738037109375000
1.2832088761786633046568795180064626038074493408203125000
0.1601145674902454407728669139032717794179916381835937500
-0.0736388576730941935011287569068372249603271484375000000
0.3549312667431673284923476785479579120874404907226562500
-0.8156322326650081722121399252500850707292556762695312500
0.4980610640587783133348409592144889757037162780761718750
0.9612184838614414861268642198410816490650177001953125000
2.1205285573236278828801459894748404622077941894531250000
0.2585411451387452652639353800623212009668350219726562500
0.2230476875835716854545864862302551046013832092285156250
0.1714331671360281306171202686527976766228675842285156250
-0.2754126536129294922083943220059154555201530456542968750
-0.5712779801771328269666128107928670942783355712890625000
0.6675055007399055551076116898912005126476287841796875000
0.1747197178816237705945013658492825925350189208984375000
0.3198321890990494242856811979436315596103668212890625000
0.6557934300060549448474489508953411132097244262695312500
-0.3337237894752041467150149856024654582142829895019531250
-0.5794823963861408522291185363428667187690734863281250000
0.5751377790741022399956250410468783229589462280273437500
0.2542423997096062704414975996769499033689498901367187500
0.5930078141080526998862865184491965919733047485351562500
1.2317579097660380504919430677546188235282897949218750000
1.8964780324106393916139268185361288487911224365234375000
-0.1525930924318458781208107666316209360957145690917968750
0.9450536586991032939053525296912994235754013061523437500
0.6126548274251926162747849957668222486972808837890625000
0.1523134201857905545285376547326450236141681671142578125
0.4677786796738104824200377152010332792997360229492187500
0.2123528864871371824030177322129020467400550842285156250
0.4299427890145032238322642115235794335603713989257812500
0.3484650104440192852628399577952222898602485656738281250
-0.1794557826018764734588017972782836295664310455322265625
0.2273726379114147932991585321360616944730281829833984375
-1.1947746367468068395822911043069325387477874755859375000
0.5521542378109095539073791769624222069978713989257812500
0.5337103699363258124677145133318845182657241821289062500
0.1063265579746596883881082362677261698991060256958007812
0.5536781752222748043124056493979878723621368408203125000
-0.7186093988401692778111851112043950706720352172851562500
-0.4237048308704163823712462999537819996476173400878906250
0.2139165656795299352843642282095970585942268371582031250
-0.2897264019075718177731459945789538323879241943359375000
-0.4182975321026258797019181656651198863983154296875000000
0.8820394310848206353981026950350496917963027954101562500
0.0725196141746106415215677998276078142225742340087890625
-0.2678312940253723128947171971958596259355545043945312500
-0.1881447367516474178383845128337270580232143402099609375
0.7795660446998053938472139634541235864162445068359375000
-1.2933579839266642341755186862428672611713409423828125000
-1.8423441277762981904686512280022725462913513183593750000
0.0037192562913054422191194703373184893280267715454101562
-1.8033255334232103361813415176584385335445404052734375000
0.3771249332245681928910130409349221736192703247070312500
0.2483312093655331564967525537213077768683433532714843750
0.8219616065100643353957821091171354055404663085937500000
1.0568525053579760353272831707727164030075073242187500000
1.1387470340215013475670957632246427237987518310546875000
0.3243457331993097048083996014611329883337020874023437500
0.0271390944442939548164606122782060992904007434844970703
-1.2819370403767091914914999506436288356781005859375000000
0.3450283273969136366154941697459435090422630310058593750
1.2474621301998314315540028474060818552970886230468750000
0.5182458234464556445786342919745948165655136108398437500
-0.3858681003542567267139418163424124941229820251464843750
-0.3270045167964497068169293925166130065917968750000000000
-1.1732606939336740481394372181966900825500488281250000000
-8.3402150451722842916524314205162227153778076171875000000
-0.8159112514898809731533901867805980145931243896484375000
0.0648846100637342215744496343177161179482936859130859375
1.3388430258806971462348656132235191762447357177734375000
0.6317616897722854174546114336408209055662155151367187500
0.3330060888634472360259053402842255309224128723144531250
-0.0651902222387758384369860209517355542629957199096679688
0.7690485225098513399899502473999746143817901611328125000
-0.3749408707840956034296198140509659424424171447753906250
0.1540886303938234225263670396088855341076850891113281250
-1.0074761851046858396330208051949739456176757812500000000
-0.6184194152162190150079368322622030973434448242187500000
-0.3464395908931839351829751194600248709321022033691406250
1.8102418402203139802253417656174860894680023193359375000
-0.0057798231571434890985194954282633261755108833312988281
0.8485575888786871523450372478691861033439636230468750000
6.8153802952213773380663042189553380012512207031250000000
0.0142377013323765899688311264981166459619998931884765625
-0.2981157295580539878798731479037087410688400268554687500
-0.2535460094076085191261427098652347922325134277343750000
-0.2676313566636136509480081713263643905520439147949218750
0.0446793070971495676069196179014397785067558288574218750
-0.7738618826105835291073731241340283304452896118164062500
0.0136108019863931187232175545887002954259514808654785156
0.8012148378540426829630405336502008140087127685546875000
0.3460788814006479086060608096886426210403442382812500000
-0.2557301816619081957782100289477966725826263427734375000
-1.2061424011536097111729759490117430686950683593750000000
0.8528584225246088612593098332581575959920883178710937500
0.7685247571215345629980220110155642032623291015625000000
1.7244280985257367522223148625926114618778228759765625000
-0.0333113258484227583999803812275786185637116432189941406
-0.4347058986533649527217448849114589393138885498046875000
-0.1863309034807433817171329337725182995200157165527343750
1.6635943967349835492797183178481645882129669189453125000
0.6985989554855471794780896743759512901306152343750000000
-0.7970610674965674657954650683677755296230316162109375000
-0.4016853651147146986311042837769491598010063171386718750
0.3276222625253965015090784618223551660776138305664062500
-0.5745605564892236616358900391787756234407424926757812500
-0.4108462072797575692639782118931179866194725036621093750
0.0062597567610350145217434914002296864055097103118896484
0.5775341197137214832579843459825497120618820190429687500
-0.3403244537257567037258354503137525171041488647460937500
-0.0355389700527931548523774551995302317664027214050292969
0.2426448567385778853910949237615568563342094421386718750
0.3731839543088624200350977844209410250186920166015625000
0.1597871672122161412765706245409091934561729431152343750
0.6640114717723970549911882699234411120414733886718750000
-1.8464618335506239876764311702572740614414215087890625000
-0.5399653663515320278776243867469020187854766845703125000
0.5082978808173715945528670090425293892621994018554687500
0.5740524402715757590343059746373910456895828247070312500
0.3661339456071605047426942292077001184225082397460937500
-0.9492249468760405317624417875776998698711395263671875000
-0.9296742429032825993928668140142690390348434448242187500
1.4088900673519968442803929065121337771415710449218750000
0.6660355086386070544435256124415900558233261108398437500
-1.2971411667511474341552002442767843604087829589843750000
-0.4118303111820181272584306952921906486153602600097656250
-1.7179831146203563552177229212247766554355621337890625000
0.1812639357172104170867754646678804419934749603271484375
1.4456971506158420304188894078833982348442077636718750000
0.4357787959213575978978383318462874740362167358398437500
-0.0075969902184664026001392755915730958804488182067871094
0.5971537347746826984717927189194597303867340087890625000
0.3824884106270937111915486639190930873155593872070312500
-0.3397164493306741861466946375003317371010780334472656250
-0.3958450823445938127065346634481102228164672851562500000
-2.0932565690080506826120654295664280652999877929687500000
-0.1975867176165404248688872712591546587646007537841796875
0.6960275267446547342586882223258726298809051513671875000
0.9250454461419516105635807434737216681241989135742187500
1.4660828068430125092902471806155517697334289550781250000
0.5565367676416002051809073236654512584209442138671875000
-0.3930846329917374593065915178158320486545562744140625000
1.7322468144811944412708726304117590188980102539062500000
0.6247449191365066489822766016004607081413269042968750000
0.3220576971625639939311724901926936581730842590332031250
-2.1563066388939446937911270651966333389282226562500000000
0.0240193060181188439150545832490024622529745101928710938
-0.6353032943538939880667726356477942317724227905273437500
0.5468336515231020378280391014413908123970031738281250000
-1.4187446786870541171055037921178154647350311279296875000
0.6805333426459085899296042043715715408325195312500000000
-0.6339212051020087779207301537098828703165054321289062500
-1.8379108378397046585916996264131739735603332519531250000
0.6938854175324163930937970690138172358274459838867187500
1.5315159444554735657106903090607374906539916992187500000
3.1079549249483555684037128230556845664978027343750000000
1.9213888415604585269136350689223036170005798339843750000
-0.5665612156783792485725825827103108167648315429687500000
0.5662494435361564715236681877286173403263092041015625000
-0.5425904795382594514308038924355059862136840820312500000
-0.4809911683628504963650129866437055170536041259765625000
-0.9868257235658611792317174149502534419298171997070312500
0.0961514871974587792546884656985639594495296478271484375
1.4113248211057083381092525087296962738037109375000000000
0.6481904899910554407327367698599118739366531372070312500
-0.7280918174436199485910492512630298733711242675781250000
0.8517023732143832459584587013523560017347335815429687500
-0.2953486985812392440209350752411410212516784667968750000
-1.0585064430924853162707677256548777222633361816406250000
-0.7681885772834486925120245359721593558788299560546875000
0.3319197690724131621919923418317921459674835205078125000
0.4749171436719695771344618151488248258829116821289062500
3.1182667281201874587281963613349944353103637695312500000
-0.4174543620184804071371331701811868697404861450195312500
0.7763191316785958973056835930037777870893478393554687500
2.0130007222166312885747174732387065887451171875000000000
-0.6257946756631866946918307803571224212646484375000000000
0.6054918212990165748976778559153899550437927246093750000
0.8559291758027474106285126254078932106494903564453125000
0.4435626966158039974352789158729137852787971496582031250
0.8471836547747069179337131572538055479526519775390625000
0.5439555313441983841471483174245804548263549804687500000
-0.1047375759787824711644077524397289380431175231933593750
0.8832045832989514622113347286358475685119628906250000000
-0.8623443280861157189676191592297982424497604370117187500
1.0897865388097258687594148796051740646362304687500000000
-1.2373104412196569423798564457683824002742767333984375000
0.5129732696017126336585079116048291325569152832031250000
-0.8219280151784458254837772983592003583908081054687500000
0.7674710743627184417192665932816453278064727783203125000
-1.5343029685672577855370946053881198167800903320312500000
-0.8181947513802302340835126415186095982789993286132812500
0.8939533900791238885119582846527919173240661621093750000
-0.0677424916456256936969637649781361687928438186645507812
-0.6435981245931401417692541144788265228271484375000000000
-0.6827391450773002690155522032000590115785598754882812500
-1.1796231985801595154583765179268084466457366943359375000
0.1924421629280713141874059601832414045929908752441406250
-0.4262430425859397020715846338134724646806716918945312500
1.3185095349681683618570104954415000975131988525390625000
-2.1062783575591952356376168609131127595901489257812500000
0.6693474614139242051535916289140004664659500122070312500
-0.7427665700987047259218343242537230253219604492187500000
0.2025195630828239834464454816043144091963768005371093750
-1.3509885895496780428004512941697612404823303222656250000
1.2890427663910879463315950488322414457798004150390625000
-0.8682700707058693678774830004840623587369918823242187500
0.1559934469596649941891541857330594211816787719726562500
-0.5674723801874558271052251257060561329126358032226562500
0.5468267646542815940691184550814796239137649536132812500
-0.2301768615403836371058332588290795683860778808593750000
-1.2366735516273008599341665103565901517868041992187500000
-0.8027438565913824763953243746072985231876373291015625000
-0.4611970939552663684146693867660360410809516906738281250
-0.4678766502483346911844819260295480489730834960937500000
-1.8309104860444165296939900144934654235839843750000000000
0.0331149473758524520716761685434903483837842941284179688
0.2280613525320233092585908707405906170606613159179687500
-0.1319267764150166277747899812311516143381595611572265625
-1.1574807878092967516892031198949553072452545166015625000
-0.1074465604770812460211359962158894632011651992797851562
-0.2446108993279529908448921560193412005901336669921875000
0.3876817304381363071819066590251168236136436462402343750
-0.3752307612811318082712830346281407400965690612792968750
-0.5696377693289270682797109657258260995149612426757812500
0.0949450006693808856716998434421839192509651184082031250
0.2660992394758140977550908701232401654124259948730468750
-0.0484879929894162647885380579282355029135942459106445312
0.0065017136612029458042627538816304877400398254394531250
0.0794733803534024285664116860061767511069774627685546875
0.0078320145156345610804038415153627283871173858642578125
0.7179153391998870370471763635578099638223648071289062500
-1.1355947890946840317383248475380241870880126953125000000
-0.4742544432864004289029935534927062690258026123046875000
-0.8380782741266871171958996455941814929246902465820312500
-0.4180178426646974365610276436200365424156188964843750000
0.2444302914946878124702323020756011828780174255371093750
-0.2186804428722276538721303040802013128995895385742187500
-0.6519776876905813978169135225471109151840209960937500000
0.3375681757606335264831898257398279383778572082519531250
-1.3009540455610686393583819153718650341033935546875000000
0.2051840204666652844878171890741214156150817871093750000
-0.7643470106993984769516714550263714045286178588867187500
-0.5740979573141667957614231454499531537294387817382812500
-0.0294112882905240742570374123943111044354736804962158203
-0.1260091712490373772048712908144807443022727966308593750
0.5415868965390362443912408707547001540660858154296875000
0.0844069811150723325887668124778429046273231506347656250
0.3464060684387359478897394637897377833724021911621093750
-0.2358329082609175730844697227439610287547111511230468750
1.7315099098688115919486563143436796963214874267578125000
0.1908313301951749529905555391451343894004821777343750000
0.0104025441543886092155002387471540714614093303680419922
-0.1103485402266819737082670371819403953850269317626953125
0.1937642862394829412764352127851452678442001342773437500
3.4042081226371379010231521533569321036338806152343750000
-0.2822217868221871817091539469402050599455833435058593750
-0.5904339703018809393242349869979079812765121459960937500
0.2148986561204298539884405272459844127297401428222656250
1.5536740005688338683853544353041797876358032226562500000
-0.6785338768836559619757053951616398990154266357421875000
1.4262852069635996166141467256238684058189392089843750000
1.7391340796123171408282814809354022145271301269531250000
0.4384584956525531818094520986051065847277641296386718750
0.4168149744136021572771255705447401851415634155273437500
-0.4143467591596001753373457177076488733291625976562500000
0.5880279086521672526899351396423298865556716918945312500
-0.5037497478002439521560518187470734119415283203125000000
0.3859039209296488692757520766463130712509155273437500000
0.5551510540186029851739135665411595255136489868164062500
2.2769808302984997361306795937707647681236267089843750000
0.6480563099926941461603746574837714433670043945312500000
-0.6405637703416027228797702264273539185523986816406250000
-0.5844487576607080292490081774303689599037170410156250000
1.2937746279352053679900791394175030291080474853515625000
-0.3352166227832996669988574467424768954515457153320312500
0.7753228065439484728571528648899402469396591186523437500
0.2048667335091466090712941650053835473954677581787109375
-0.1138846391495627469181428637057251762598752975463867188
-0.2322059171113769471261889520974364131689071655273437500
-0.1419084464477330387310871628869790583848953247070312500
1.0892402490311747786932983217411674559116363525390625000
-0.2149040366727965056803384413797175511717796325683593750
-0.2274394631365003471845653848504298366606235504150390625
0.6442835791482806051533316349377855658531188964843750000
-0.6583267128353139652219283561862539499998092651367187500
0.4173202253793092397771147261664737015962600708007812500
0.4867826095943540432031682030356023460626602172851562500
-0.4037267846816288141553741297684609889984130859375000000
-0.7391375339922094944711261632619425654411315917968750000
1.4208710345844992595232270105043426156044006347656250000
-0.5514377496596706285103550726489629596471786499023437500
0.2835723859725929885122752693860093131661415100097656250
-0.0450643433850186833633522098807588918134570121765136719
0.9297896452146945378558484662789851427078247070312500000
-0.0210467171818698173257899952659499831497669219970703125
0.0474534930942676763665488692822691518813371658325195312
-0.3069252814941551554817067426483845338225364685058593750
0.3023520521103658653672141554125119000673294067382812500
-0.0935055917202281677846897878225718159228563308715820312
0.4315525991147106110723541405604919418692588806152343750
0.4803690447317354728085092574474401772022247314453125000
-0.0488978022053917146805268600928684463724493980407714844
0.8898091009757317371153817475715186446905136108398437500
-0.1744206648390221880973172119411174207925796508789062500
0.4089104625429770267786011572752613574266433715820312500
2.0195721108779931540766483522020280361175537109375000000
-0.0166038194862135474183517658275377470999956130981445312
-0.5274940685335142154244181256217416375875473022460937500
-0.1481864737317874214372892538449377752840518951416015625
-1.3947752143983227490764420508639886975288391113281250000
-0.8040527209333354630160783926839940249919891357421875000
-0.0447355215767216984890097819516086019575595855712890625
1.2075664233331511177027550729690119624137878417968750000
-0.4471852570309343688492731416772585362195968627929687500
-1.4273594868304213534315749711822718381881713867187500000
-1.0156002416871010574084266409045085310935974121093750000
0.8441269440399115087103609766927547752857208251953125000
-0.3838513492594270992697147448780015110969543457031250000
-0.1166142445474339650601791618100833147764205932617187500
0.0056533795844013641496150768261941266246140003204345703
-0.5635310359662031309824214986292645335197448730468750000
1.7642797850645479673659110630978830158710479736328125000
0.7079132682756658079270550842920783907175064086914062500
0.2706162758989448802182664621795993298292160034179687500
-0.8111575729172462168037327501224353909492492675781250000
0.1400304243458604935845812633488094434142112731933593750
0.4821405400875045099695626049651764333248138427734375000
0.1530130663785791433895155932987108826637268066406250000
-0.0834340563224185149948652906459756195545196533203125000
0.3037537753952966879111841080884914845228195190429687500
-0.2773678915325385463397367402649251744151115417480468750
-2.8865151578533740917009708937257528305053710937500000000
0.0867701813765962975955048364085087087005376815795898438
-0.6234548114770915860916034034744370728731155395507812500
-2.4649966902421924785926421463955193758010864257812500000
-3.0468135949111196936200940399430692195892333984375000000
-0.2082946315726891262087860923202242702245712280273437500
0.6850914371962633087065341896959580481052398681640625000
0.0236447930662939675983125198399648070335388183593750000
0.7329033868327452516666653536958619952201843261718750000
0.4018179213851681419455985633248928934335708618164062500
0.1100750392960488377447347829729551449418067932128906250
0.7612065873099072010887766737141646444797515869140625000
1.5214616186142848608398026044596917927265167236328125000
-0.1341170828550324600758614224105258472263813018798828125
0.7392033032308162887602520640939474105834960937500000000
-1.2177214138803442722291947575286030769348144531250000000
1.8931471743684273878471913121757097542285919189453125000
-0.3529346472154470393256531224324135109782218933105468750
-0.0428419662085658681238697909066104330122470855712890625
-0.2388504944693329856697516788699431344866752624511718750
-1.8201377670167753208829708455596119165420532226562500000
-0.8102444061661090435322307712340261787176132202148437500
0.6312083097392849895257427306205499917268753051757812500
1.3120497954868513001969176912098191678524017333984375000
-1.0489950568423485055546962030348367989063262939453125000
-0.5880472908000675680284530244534835219383239746093750000
1.0977626298581377728424968154286034405231475830078125000
-1.3927856156138767040886250470066443085670471191406250000
0.3882290602501313192540521868068026378750801086425781250
-0.7335041291159034582136655444628559052944183349609375000
1.0971227542463795057159359203069470822811126708984375000
0.8568867818292060789531205955427139997482299804687500000
1.2625735311990871068132946675177663564682006835937500000
0.9188473450636023276416608496219851076602935791015625000
4.4337326835662294044482223398517817258834838867187500000
-0.6641183639718254427819488228124100714921951293945312500
-0.1988518189450472761770072338549653068184852600097656250
0.4075621763319569046402079948165919631719589233398437500
-0.0301265701725042522873820871609495952725410461425781250
-0.4164413993014017822957839598529972136020660400390625000
0.6309882367235624123225079529220238327980041503906250000
0.1762324132206310733916865274295560084283351898193359375
-1.0397110131296811719181505395681597292423248291015625000
0.1124198247743493500605538315539888571947813034057617188
-0.1027048092950892110852834093748242594301700592041015625
2.3099756655292109641663955699186772108078002929687500000
-1.0339965331556206784568985312944278120994567871093750000
0.2611757647715400865173762667836854234337806701660156250
-0.2168012923318863860444594138243701308965682983398437500
-0.2108593789822291730828851541446056216955184936523437500
1.1293825696757029408701100692269392311573028564453125000
1.1898760975873505785216366348322480916976928710937500000
-0.9717421402399819552186954751960001885890960693359375000
0.6921545660105202779632804777065757662057876586914062500
1.1950020612108565032372098357882350683212280273437500000
-0.0167940827017902492845902173712602234445512294769287109
-1.4100037286278073178635850126738660037517547607421875000
0.2860115798000291698066632761765504255890846252441406250
-0.5610456040725313453521039264160208404064178466796875000
-0.3684492508014131084692621698195580393075942993164062500
0.7132027193777479290304199821548536419868469238281250000
-1.8365515439494390914632049316423945128917694091796875000
0.5922095131810024559726457482611294835805892944335937500
0.2319807408480482613377660072728758677840232849121093750
1.5101580989705138957646113340160809457302093505859375000
-0.2661166716345054195080876979773165658116340637207031250
-0.4191888850345960038090709076641360297799110412597656250
0.2345943716398845024784236557024996727705001831054687500
0.4235849628750398276899602478806627914309501647949218750
-1.3723713294095833958863295265473425388336181640625000000
-0.0199337114732697183450138567195608629845082759857177734
1.0272782306048411360421823701472021639347076416015625000
1.4967399499512084037888826060225255787372589111328125000
2.8967353220836948857197512552374973893165588378906250000
-0.5457304476195637965574292138626333326101303100585937500
0.2544795840440072232091495152417337521910667419433593750
-0.5713821909708614033007734178681857883930206298828125000
0.6404710381984513034581141255330294370651245117187500000
0.4741361574426044001029367791488766670227050781250000000
-1.5120308311523487088123829380492679774761199951171875000
-1.1565268156375676511515848687849938869476318359375000000
0.2207551171454182614706240883606369607150554656982421875
0.1566925235522255155373727575351949781179428100585937500
-2.5971096029148617034820745175238698720932006835937500000
0.5000775177638120405632093934400472790002822875976562500
-0.6009356470083295764794684146181680262088775634765625000
-0.7012039835982093460842179410974495112895965576171875000
0.1244327142854259882209788656837190501391887664794921875
1.1198481868818079831839895632583647966384887695312500000
0.9449718241727035339394547008851077407598495483398437500
1.6203299160510313825511730101425200700759887695312500000
0.9790732229104877060166245428263209760189056396484375000
-0.9089540097524438921894329723727423697710037231445312500
-0.0868480878961019886475014573079533874988555908203125000
-4.2221975860425882132176411687396466732025146484375000000
-1.0904427759482828719228564295917749404907226562500000000
1.0686831829496576951044062298024073243141174316406250000
1.0110163652818429103064090668340213596820831298828125000
-1.5181143523673807926854806282790377736091613769531250000
0.8108724637981739036263206799048930406570434570312500000
-0.2430738306056036135416320576041471213102340698242187500
-0.7897346228024009207047129166312515735626220703125000000
-1.2434954754079803329602782469009980559349060058593750000
-0.8538760231400628342157688166480511426925659179687500000
-0.1132457036837886538149788862028799485415220260620117188
-1.6525875638772806741627618976053781807422637939453125000
1.5147322086559649179093867132905870676040649414062500000
0.9831480129935001865959520728210918605327606201171875000
-0.6619995736925746721013297246827278286218643188476562500
2.0110647548100670789494870405178517103195190429687500000
2.6870986720752787491051094548311084508895874023437500000
-0.5195173866617788238642106080078519880771636962890625000
1.4487563075085363450966724485624581575393676757812500000
0.6619807204363595820595378427242394536733627319335937500
-1.6020146270374289176885440610931254923343658447265625000
0.5419709063427261552803315680648665875196456909179687500
1.3541802089571670641987566341413185000419616699218750000
-1.3385100771493574356441058625932782888412475585937500000
-0.5888384978416323356498196517350152134895324707031250000
-1.9414338246559812439784309390233829617500305175781250000
0.0385138222081509440375413078072597272694110870361328125
0.3700083210361341246041888553008902817964553833007812500
2.4549766580770828738877753494307398796081542968750000000
2.0869740689423843527094959426904097199440002441406250000
4.5965432036116515845947105844970792531967163085937500000
0.7961990464541844891854793786478694528341293334960937500
-0.1614660071616359215962432926971814595162868499755859375
-2.1047221525873651692961630033096298575401306152343750000
2.3542962140270815574183416174491867423057556152343750000
0.9613707678420507773964232001162599772214889526367187500
-0.4976604373395860925199940538732334971427917480468750000
1.2288629434009115115600252465810626745223999023437500000
1.1162693493413695655647188686998561024665832519531250000
1.2489301500441891690229567757342010736465454101562500000
-0.6905974263781474720147457446728367358446121215820312500
0.2980087524902471640686485443438868969678878784179687500
1.6977081543001049102059596407343633472919464111328125000
-2.3981146461124804858400239027105271816253662109375000000
0.0994768031575414546363589352040435187518596649169921875
-0.8833803483953395208061465382343158125877380371093750000
-1.1964470298523994795658609291422180831432342529296875000
-0.0035347258455042445887683832950187934329733252525329590
-0.9622934528871055492871278147504199296236038208007812500
-0.6644686844580030005147364136064425110816955566406250000
-0.2773543592058366757946430425363359972834587097167968750
-0.6844958436831821702028832987707573920488357543945312500
-1.1706072463791181714753975029452703893184661865234375000
-1.9465260946116171858477628120454028248786926269531250000
1.3770293737531085209724324158742092549800872802734375000
0.1065254236000338083911742614873219281435012817382812500
-0.6763116053668790650377218298672232776880264282226562500
0.8032337333359508280139493763272184878587722778320312500
-0.0649075238479918104061994199582841247320175170898437500
1.7720197989755195333572146410006098449230194091796875000
0.2957083762875732935171413373609539121389389038085937500
-0.9269737208847449450033195716969203203916549682617187500
0.1098362263425565615859724744041159283369779586791992188
0.9038643146968268204943797172745689749717712402343750000
0.6175835122114498032530605087231379002332687377929687500
-0.5796709273442708365564612904563546180725097656250000000
-0.0713411462691534437041696037340443581342697143554687500
-0.5784378093955770960832296623266302049160003662109375000
-0.4422156882645724707003864750731736421585083007812500000
-4.9208043810495505354651868401560932397842407226562500000
0.6739691250722161797170883801300078630447387695312500000
-0.5954011609889239275972272480430547147989273071289062500
-2.2181775158150198734574587433598935604095458984375000000
0.5161517237941066760242847522022202610969543457031250000
-3.3040502916197231897399433364626020193099975585937500000
1.1198523307170111795727507342235185205936431884765625000
0.0111535562661254292193824255718936910852789878845214844
2.8755915720764559928568360192002728581428527832031250000
0.4309759702958825267060660735296551138162612915039062500
-1.9197642423797998123546904025715775787830352783203125000
-3.6952120065704630036407252191565930843353271484375000000
0.4539079156163632333687019126955419778823852539062500000
-0.6415327820615568388262772714369930326938629150390625000
2.7946305394755275308682485047029331326484680175781250000
-0.0708140899000771900650974544078053440898656845092773438
-0.2342865307850660605559767191152786836028099060058593750
0.5574152865291083225329771266842726618051528930664062500
0.0812032373106309768306942942217574454843997955322265625
0.2066148082103216321314675951725803315639495849609375000
-0.3996465953407390969687185133807361125946044921875000000
-8.7485420372515871889618210843764245510101318359375000000
0.6745365821680096019008487928658723831176757812500000000
-1.0384167588984372088134477962739765644073486328125000000
0.6525748353060613071718876199156511574983596801757812500
-0.4466042135088398867814873938186792656779289245605468750
8.0244456444109673043385555502027273178100585937500000000
-0.5692423632876113526180006374488584697246551513671875000
1.1437574935934180508922963781515136361122131347656250000
-0.1607738016760568433571876312271342612802982330322265625
1.5400707484052180706868284687516279518604278564453125000
0.2719548387515581810980336285865632817149162292480468750
-0.2008321741571524876590615349414292722940444946289062500
0.0680349202034427058549681532895192503929138183593750000
-0.7822418966743415191800181673897895961999893188476562500
2.6455644148704742235622688895091414451599121093750000000
0.0902087498735067716548741145743406377732753753662109375
0.1837981485915061719005336726695531979203224182128906250
-0.3061886562828276536762928117241244763135910034179687500
0.5279620552750095008320840861415490508079528808593750000
-0.1320087733752159375733015167497796937823295593261718750
-0.2969291713912284857990186992537928745150566101074218750
0.4420070207944102325114954510354436933994293212890625000
0.5068648343256914046150996000505983829498291015625000000
-0.0208978245946291121826199344013730296865105628967285156
0.0486700768350239384996136493555241031572222709655761719
-0.1238776438384596584318941836500016506761312484741210938
-0.3188173656382384257845785668905591592192649841308593750
-0.2530178503240273490959566515812184661626815795898437500
-0.0357690900159687297232835589966271072626113891601562500
0.4494301604377405889856333942589117214083671569824218750
1.4014574915620725548137670557480305433273315429687500000
-0.1638604514303775849803912478819256648421287536621093750
-0.5487997863454046054698665102478116750717163085937500000
0.6473385244874551025517916968965437263250350952148437500
-0.0560778619278917839219289476204721722751855850219726562
-4.1046300906308106348774344951380044221878051757812500000
-0.3254065946188526847748789805336855351924896240234375000
0.4083285334760403118004035150079289451241493225097656250
-1.1228783567291682476962932923925109207630157470703125000
-0.3516716547283494920250745963130611926317214965820312500
0.8459956897360757510639928113960195332765579223632812500
0.9736799720699083060537759592989459633827209472656250000
1.0912272090448882355673276833840645849704742431640625000
0.9770657108757372366625304493936710059642791748046875000
-12.5134353481519600137517045368440449237823486328125000000
0.6034518786067596396449630447023082524538040161132812500
0.2457748599466431926874321334253181703388690948486328125
0.7053475369158193064578199482639320194721221923828125000
-0.1006293223418264909385655414553184527903795242309570312
0.5413555540039924895978629137971438467502593994140625000
-0.5471846065397488745318810288154054433107376098632812500
0.2538248103063981964133688506990438327193260192871093750
-1.1008331913285722691853152355179190635681152343750000000
0.2287184919057158039024102436087559908628463745117187500
-1.0877570706900392405458433131570927798748016357421875000
0.4546067416987952247708903996681328862905502319335937500
0.2961528513705440346370778570417314767837524414062500000
0.9900507867571287645702682311821263283491134643554687500
0.1611082210938337977434997583259246312081813812255859375
-0.2228137415776287322266568935447139665484428405761718750
-2.5957597868642885430290334625169634819030761718750000000
-0.3184263559636112406181496226054150611162185668945312500
0.5464984812186313156701089610578492283821105957031250000
-0.1583526347898274733161372296308400109410285949707031250
-0.7850301056965113266628009114356245845556259155273437500
-6.1908974225255182233240702771581709384918212890625000000
0.8851735238389198956454606559418607503175735473632812500
0.8513239120029389983557166488026268780231475830078125000
-1.4868790895995727119327511900337412953376770019531250000
-0.7732863445582534023259313471498899161815643310546875000
-0.3222663354863071760725290459959069266915321350097656250
-0.5325108283440264100860872531484346836805343627929687500
1.8351575950157341665658350393641740083694458007812500000
2.0560261764445089127661958627868443727493286132812500000
-11.8539122768055840140277723548933863639831542968750000000
1.9735290796025264370427976245991885662078857421875000000
0.5682882872436089138901138539949897676706314086914062500
3.3464652119471018920648930361494421958923339843750000000
1.4349544593783112311768945801304653286933898925781250000
4.5079355351110574900985739077441394329071044921875000000
1.1772199472716313728426484885858371853828430175781250000
-0.9362287932227156828091096940624993294477462768554687500
-0.7799932927725790055006882539601065218448638916015625000
0.2583375854553773831590035570116015151143074035644531250
-1.3790582379026095072305224675801582634449005126953125000
-0.5893713975843233310314417394693009555339813232421875000
0.4433129962285907721408761972270440310239791870117187500
1.1563129236780138597850964288227260112762451171875000000
-1.0080623978247882366332532910746522247791290283203125000
-0.3305967352272694559367494093748973682522773742675781250
0.3733761395882373435028966923709958791732788085937500000
0.2888534248436021023564990173326805233955383300781250000
1.4933933891352015876918812864460051059722900390625000000
-1.4527954129619422563024500050232745707035064697265625000
-0.1431584279934171310966206647208309732377529144287109375
3.6094577745458473749806671548867598176002502441406250000
0.6462564585559424923388860406703315675258636474609375000
-0.4445935138989666191022820385114755481481552124023437500
-0.4030385936160897353275345267320517450571060180664062500
-1.6400375038386962867065221871598623692989349365234375000
-2.0671771710721209558414557250216603279113769531250000000
-0.4504920964183137255254507635982008650898933410644531250
-1.5615618098694723503427894684136845171451568603515625000
0.4722059098748735972428391960420412942767143249511718750
-7.7067266872842532521303837711457163095474243164062500000
-0.5858402995519156331027943451772443950176239013671875000
0.1396926732249999525414807521883631125092506408691406250
-0.2550693055252990504300214524846524000167846679687500000
0.5160966543746750012644497473957017064094543457031250000
0.4236543059867203808721569657791405916213989257812500000
0.2656333259350885933613994893676135689020156860351562500
-0.3147528416357719960316785545728635042905807495117187500
-0.1646182538754059065944090889388462528586387634277343750
-0.7833670286316543052151928350212983787059783935546875000
-0.2565269104811130906895755288132932037115097045898437500
0.0824812382918825304223275907133938744664192199707031250
-0.3683157127376430195475620621436974033713340759277343750
0.0204577023719995365613755211597890593111515045166015625
-0.1881279020613267904948884279292542487382888793945312500
0.1045947225229468674490007629174215253442525863647460938
0.6495168841390360769949552377511281520128250122070312500
0.0906006737427919317529045883929939009249210357666015625
0.3075730195965200586272203508997336030006408691406250000
-0.6046786944388160556229649955639615654945373535156250000
-0.1995205265189066989872657131854793988168239593505859375
-0.9282838283598500161986066814279183745384216308593750000
-0.4643782456140871928162994208832969889044761657714843750
0.1647562035914580391704475914593786001205444335937500000
0.3669032129215062387750379002682166174054145812988281250
0.3491407185109530741939920517324935644865036010742187500
1.7222447845517281361793493488221429288387298583984375000
0.1089229767010122529313775885384529829025268554687500000
0.9166608394428321648916835329146124422550201416015625000
0.9818779682855003354546852278872393071651458740234375000
1.2195659185249632106007311449502594769001007080078125000
-1.9149913935457618663349421694874763488769531250000000000
0.1096536343229828625034372180380159988999366760253906250
0.8222339104162026401922958029899746179580688476562500000
0.2120795480862724957660248037427663803100585937500000000
0.3809262386419131063419740712561178952455520629882812500
-0.4276990192851138905538732615241315215826034545898437500
0.1430931258467684208390835465252166613936424255371093750
-0.7226411589328602946835644615930505096912384033203125000
-0.8766363836256262365154157123470213264226913452148437500
0.4966149569774597205551458500849548727273941040039062500
0.2008353439567865938997215380368288606405258178710937500
0.4278079060424176405241780685173580422997474670410156250
-0.2822832356330889913564874404983129352331161499023437500
0.4925560294804274263924526167102158069610595703125000000
-0.6225968959535633784341257523919921368360519409179687500
0.6052421076321106152562379065784625709056854248046875000
0.4015484091135634314717606230260571464896202087402343750
-0.0891945186629171937742199816057109273970127105712890625
-0.2965187633609402961809564658324234187602996826171875000
-0.7097003234362271317792192348861135542392730712890625000
11.9430631896785133250205035437829792499542236328125000000
-0.2378243038274701903755925513905822299420833587646484375
0.6551683095464780892669409695372451096773147583007812500
0.6732207741887555885185179249674547463655471801757812500
-0.8387060486932647052071843063458800315856933593750000000
2.0064231996541477265338926372351124882698059082031250000
-0.4955933154713150767811669084039749577641487121582031250
0.8562385033988026972195939379162155091762542724609375000
-0.5056863573890998386772821504564490169286727905273437500
5.3731282446090462556753664102870970964431762695312500000
1.3462201339305930325451754470122978091239929199218750000
-0.2993827171583389734621505340328440070152282714843750000
-0.4636239387870366157606838442006846889853477478027343750
-0.1305991291254837982638292714909766800701618194580078125
1.1480265556275475180569856092915870249271392822265625000
0.6309600867869429308143480739090591669082641601562500000
-0.0876290587276612464862068918591830879449844360351562500
-0.4983278880034956448419336538790958002209663391113281250
-0.0900062220413465480239878502288775052875280380249023438
1.1108996384074170116207369574112817645072937011718750000
-0.0945276311148306735976376558028277941048145294189453125
0.0906169065052260247483673083479516208171844482421875000
0.4154526179210621950055326578876702114939689636230468750
-0.1966672206959080571042619567379006184637546539306640625
0.0621202599810614514153073173474695067852735519409179688
3.2735276988221877481066712789470329880714416503906250000
-0.1520549988904736082862001467219670303165912628173828125
-0.5710735577165326759541130741126835346221923828125000000
0.2804672410053405950947080782498233020305633544921875000
-0.3982591428378981501801092690584482625126838684082031250
-5.7382745923685760658372601028531789779663085937500000000
0.2460128598315750869662821287420229054987430572509765625
-0.5380858275337251361847279440553393214941024780273437500
-0.9584767877348134845760796451941132545471191406250000000
1.8011438817988572047568140988005325198173522949218750000
0.2678622252836580508450481374893570318818092346191406250
-0.0251318817325798006534487427643398405052721500396728516
0.0488321113624778091466538398890406824648380279541015625
-0.8307222355536453273217034620756749063730239868164062500
0.8576847465378840684735450849984772503376007080078125000
1.1381676488626495391542903234949335455894470214843750000
0.0596226017960622550750926507134863641113042831420898438
-1.5775324788799727215860002615954726934432983398437500000
-0.5955369630322127072474813758162781596183776855468750000
0.9297655041969346001451413030736148357391357421875000000
0.9465002477308055439664258301490917801856994628906250000
-0.9007145956104519735063718144374433904886245727539062500
0.2338602219065512022311281725706066936254501342773437500
0.3164178296142022284165307155490154400467872619628906250
0.1115263734429740027920274769712705165147781372070312500
0.5262957090823751071795300049416255205869674682617187500
-0.6553731983823165574420954726519994437694549560546875000
-0.1075542758542482046912880377931287512183189392089843750
0.4662003815903044690038825592637294903397560119628906250
0.4833201429284986749834729380381759256124496459960937500
6.2589421002582348307896609185263514518737792968750000000
-0.1673417548514687380745158407080452889204025268554687500
0.5956551108141802108875140220334287732839584350585937500
-0.5842825221381111600038593678618781268596649169921875000
-0.3206287156973751661936944401531945914030075073242187500
-6.1463941636918955069290859682951122522354125976562500000
0.5607231505311213171083295492280740290880203247070312500
-0.7514951920523731399015332499402575194835662841796875000
-0.0293892373448238902744478195927513297647237777709960938
-0.2427713585717165833965935917149181477725505828857421875
-0.6242189734231718967194524338992778211832046508789062500
-0.4151679817217498458248314818774815648794174194335937500
-0.7791030640355166569932521269947756081819534301757812500
0.3266310706866569213424611461960012093186378479003906250
1.7183071592716903097652902943082153797149658203125000000
-0.3212430534824554095862936264893505722284317016601562500
0.1715327048298466161568853749486152082681655883789062500
0.2097305385974033709040043049753876402974128723144531250
0.1259520999070816715814657982264179736375808715820312500
-0.2004021229996500452763541488820919767022132873535156250
-0.7751093912628425064426096469105686992406845092773437500
0.4279402888641286040183331351727247238159179687500000000
0.1177372871760486716663507422708789817988872528076171875
0.7240301970891388494422358235169667750597000122070312500
-0.4017846746354091780339956585521576926112174987792968750
0.2705565846627489001718913641525432467460632324218750000
-0.0685466960315350148924551376694580540060997009277343750
-0.0415414391980779285074021345280925743281841278076171875
-0.0159275290828248261565391885596909560263156890869140625
0.1089305117595505412175782566919224336743354797363281250
-0.7465982432417003211710948562540579587221145629882812500
-0.2142817376891916203440757726639276370406150817871093750
-0.1996786580250701770289367686928017064929008483886718750
-0.1104623004959385118572967598993272986263036727905273438
-0.2644448239473856654413452815788332372903823852539062500
-1.1431494279076257480909362129750661551952362060546875000
-0.0346241316660262504756317980536550749093294143676757812
0.5255757149255835258827573852613568305969238281250000000
2.7788062679134712951167784922290593385696411132812500000
-0.2112802957166500239516437886777566745877265930175781250
2.4892984717564514696164224005769938230514526367187500000
0.2436714421485195458672023960389196872711181640625000000
-0.7148523888108863078016952385951299220323562622070312500
-3.1858977982550533702976736094569787383079528808593750000
22.9029315241011524051373271504417061805725097656250000000
1.1058281043123412423767604195745661854743957519531250000
-1.3329454364386279507925792131572961807250976562500000000
-3.6822855525500610696099101915024220943450927734375000000
-3.6443631769715580936974674841621890664100646972656250000
-6.8186158491179948981653069495223462581634521484375000000
-1.8840694830092903355733824355411343276500701904296875000
1.0603884832042107522198648439371027052402496337890625000
0.2969320678497115451044408018788089975714683532714843750
1.7596561978578204588075095671229064464569091796875000000
0.6369094485440796038488997510285116732120513916015625000
0.2632162766848935020469468781811883673071861267089843750
-0.3586630952065417154983606451423838734626770019531250000
0.0680933109428120825201702359663613606244325637817382812
0.7635104524169071815720144513761624693870544433593750000
0.8147521036298178698231708949606399983167648315429687500
-5.3403654723058044950789735594298690557479858398437500000
-0.3751865491332827540205130389949772506952285766601562500
-0.3246927164164621903985619155719177797436714172363281250
2.6579364427018248306922032497823238372802734375000000000
-0.2692257301392283475038880169449839740991592407226562500
-5.0587595445203561439484474249184131622314453125000000000
-0.1422338218282608868214822450681822374463081359863281250
0.1103404252246002470450036980764707550406455993652343750
0.5242493496618947368403951259097084403038024902343750000
5.0853127008333203207257611211389303207397460937500000000
-1.8639368142827090757407404453260824084281921386718750000
-0.4432293307063046583493814978282898664474487304687500000
0.8159864832349821295309766355785541236400604248046875000
-0.3708050321791708237029183692357037216424942016601562500
10.1861434748077233081176018458791077136993408203125000000
0.8859258331511918882483769266400486230850219726562500000
-0.3046613562511640838081916626833844929933547973632812500
-1.2320955076738970834782094243564642965793609619140625000
-1.7426625906181107961145926310564391314983367919921875000
2.0622985658591534985362159204669296741485595703125000000
1.8223504335312943336333546540117822587490081787109375000
-0.9334096115534569193528113828506320714950561523437500000
1.2653968941946660553554693251498974859714508056640625000
-0.9415960614755346513859990409400779753923416137695312500
-2.1967452163213234683780683553777635097503662109375000000
-0.5820300883710758377276306418934836983680725097656250000
-0.5657450874711512645021116441057529300451278686523437500
-0.2430201150643053198407983472861815243959426879882812500
0.1932056794558960899355071205718559212982654571533203125
0.2318067055016583832838250600616447627544403076171875000
4.8650390028345995574454718735069036483764648437500000000
0.5227314683630704950090262173034716397523880004882812500
1.5497500333416980300427212569047696888446807861328125000
1.5107172137430091574117341224336996674537658691406250000
0.2384911291967907465139120404273853637278079986572265625
18.1750087031566813777772040339186787605285644531250000000
-0.3328644687535647905818336766969878226518630981445312500
-1.3818223764897645811089432754670269787311553955078125000
-0.2249567001286241207935745478607714176177978515625000000
2.4989664751463238623330198606709018349647521972656250000
-3.5033536393982882550801605248125270009040832519531250000
-0.6668225810014583032625523628666996955871582031250000000
-0.6480074383815319638557639336795546114444732666015625000
-0.7770387913730372186904560294351540505886077880859375000
-4.7002489495625958682012424105778336524963378906250000000
-1.4918250422426804213671402976615354418754577636718750000
0.2044447013464000262317199485551100224256515502929687500
0.3844981632264199422621686608181335031986236572265625000
0.4379697454750585694505105038842884823679924011230468750
-0.0839500886069526330857115681283175945281982421875000000
-0.2125097893845880325791597442730562761425971984863281250
-0.3606650126367960673690049588913097977638244628906250000
1.3868405797039247140389761625556275248527526855468750000
0.5604766311523279309625422683893702924251556396484375000
0.9710103141498271916987050644820556044578552246093750000
-0.3011268850364263727215075050480663776397705078125000000
-0.3616016143423451123517509131488623097538948059082031250
-0.5964585224619953773839142741053365170955657958984375000
-0.0205158269725835423757942521660879720002412796020507812
0.3506315201130014713726268382743000984191894531250000000
0.6929337947239858630510411785508040338754653930664062500
0.3144752668930691497095608610834460705518722534179687500
-0.9638818181688898478753912968386430293321609497070312500
0.7196532777680041403911559427797328680753707885742187500
0.0366497308233410742928093384307430824264883995056152344
-4.9111010630112064134777938306797295808792114257812500000
-0.5496992924732357899131329759256914258003234863281250000
-0.4504578747040941522072898806072771549224853515625000000
0.5963027001435370344495368044590577483177185058593750000
2.1166381706141099705575925327138975262641906738281250000
-1.4695220442613801115072647007764317095279693603515625000
0.5010365235996375732341334696684498339891433715820312500
-0.6016179377007229156504308775765821337699890136718750000
0.5367588550961095439362225079094059765338897705078125000
-6.3861380943468146753616565547417849302291870117187500000
-3.6650163872839782719381673814496025443077087402343750000
-1.1414493353898651495370586417266167700290679931640625000
-0.0428057754613335797455597742100508185103535652160644531
0.1443728738206968842394672947193612344563007354736328125
3.6560586893447966083670053194509819149971008300781250000
3.5783991098405820707739621866494417190551757812500000000
0.3711167232743886601475935549387941136956214904785156250
-0.6461337005748460926568554896221030503511428833007812500
-2.7307375729239016237670512055046856403350830078125000000
-0.0968160181530720309606152795822708867490291595458984375
0.9868741290669097443455370921583380550146102905273437500
-0.4135507652137117018398271284240763634443283081054687500
0.4011957769239173909880946666817180812358856201171875000
1.2933701781334170366477565039531327784061431884765625000
-1.4301181150991935098204521636944264173507690429687500000
8.7506204212524867358524716109968721866607666015625000000
-0.1948754614767109205608619504346279427409172058105468750
-2.2097492334981354566991740284720435738563537597656250000
-1.1398009324760975946588814622373320162296295166015625000
-0.3796573009935199638498204421921400353312492370605468750
1.1580707652328658952001205761916935443878173828125000000
-0.4374819741820121787867492457735352218151092529296875000
0.1478094975713436509678899710706900805234909057617187500
-0.6388680981696929217505953602085355669260025024414062500
-4.7729204330489345409205270698294043540954589843750000000
2.7140719886835031893212999420939013361930847167968750000
-0.5976332866663990328603972557175438851118087768554687500
-1.4975550493287808073716860235435888171195983886718750000
1.4791616962124183309867930802283808588981628417968750000
-16.3038294993322665504820179194211959838867187500000000000
0.5232401722368226204551433511369396001100540161132812500
-0.0365589766038612248855166342309530591592192649841308594
1.7585625967022724402966105117229744791984558105468750000
0.7415297199295322050360823595838155597448348999023437500
1.5870336368737856247435047407634556293487548828125000000
-1.3763392863266770138608308116090483963489532470703125000
0.1587077360422159688635446173066156916320323944091796875
-1.5108454029034448229396048191119916737079620361328125000
-0.1319381067453801459343765145604265853762626647949218750
0.4047166043021963588444123161025345325469970703125000000
0.0320872424169677539218525907926959916949272155761718750
0.5426336985598182449663795523520093411207199096679687500
-0.0351487999306501694429805127128929598256945610046386719
-0.1749348783005852669969470980504411272704601287841796875
-0.3753328725436219093225531651114579290151596069335937500
-2.5979670280345619204354079556651413440704345703125000000
0.1365686513399169410565292537285131402313709259033203125
0.0627173561712213861740750076023687142878770828247070312
-0.9708472184919116898527136072516441345214843750000000000
-0.9036590241205813001101887493859976530075073242187500000
-25.1717585221468169720537844114005565643310546875000000000
-0.0211424286093631376426404955282123410142958164215087891
1.3163354416498678212121831165859475731849670410156250000
-0.0518496412750243523825943725569231901317834854125976562
-0.2869117881921792179156227575731463730335235595703125000
2.9094329796052869063771595392609015107154846191406250000
0.4228341861427083459012976618396351113915443420410156250
1.4600075370291458742855184027575887739658355712890625000
0.3478806065904334610117132342566037550568580627441406250
-5.3745220402917137647591516724787652492523193359375000000
0.4263469822497442107689380463853012770414352416992187500
-0.8310311475222641464100092889566440135240554809570312500
2.0518330390146766184500393137568607926368713378906250000
0.6590323081427953422206655886839143931865692138671875000
0.3795054986004932073839768236211966723203659057617187500
0.5557995650568375856082070640695746988058090209960937500
0.6254320846836797231915738848329056054353713989257812500
-1.1548726435735072737287509880843572318553924560546875000
1.0266958860625814420330925713642500340938568115234375000
0.6544080597824979417254098734701983630657196044921875000
0.9288911881938617387532985958387143909931182861328125000
-0.1415879891601213858010055446357000619173049926757812500
0.8952346152789250055548109230585396289825439453125000000
0.4923354214806081596833564617554657161235809326171875000
-0.6458448401321255083473715785657986998558044433593750000
2.4307016837314510127043831744231283664703369140625000000
-1.0590494723201342441853967102360911667346954345703125000
-0.8512013616564866325120419787708669900894165039062500000
-1.6490834678354260312005408195545896887779235839843750000
0.4421142220605583927905968266713898628950119018554687500
-20.7919514854699016837003000546246767044067382812500000000
0.9931096379460000456163015769561752676963806152343750000
0.8681778688233422469622269090905319899320602416992187500
-0.2782664960373263940418553374911425635218620300292968750
-2.2936066406759372249268835730617865920066833496093750000
1.0597087489805983029356184488278813660144805908203125000
-0.2143449080602852774291022797115147113800048828125000000
-0.9994988492536174273794813416316173970699310302734375000
1.0337717126702259395898408911307342350482940673828125000
-12.2136828184410699549289347487501800060272216796875000000
0.9966600926976671992463252536254003643989562988281250000
-0.0731276804649786393852650689950678497552871704101562500
2.6981847259996412091709316882770508527755737304687500000
-2.2974994910520938340425800561206415295600891113281250000
0.9999581665565644428284031164366751909255981445312500000
-0.7061713854180575733465730081661604344844818115234375000
-0.4672032654236535353931003555771894752979278564453125000
-1.0931350318083106198940868125646375119686126708984375000
-0.1410418897718197506208070990396663546562194824218750000
-1.5005420116959660159494660547352395951747894287109375000
-0.5574655494935122357347268007288221269845962524414062500
0.6022124069457052142340103273454587906599044799804687500
0.0151211374487297614543912516182899707928299903869628906
-0.3807553777743951650691656141134444624185562133789062500
0.0676627179210254614538655459909932687878608703613281250
-4.4802427672954934223525924608111381530761718750000000000
0.8000880357444156709689764284121338278055191040039062500
0.9735951655663797055240138433873653411865234375000000000
0.5846773239448703751719449428492225706577301025390625000
-0.3512864876705355521302465149346971884369850158691406250
0.1814762654594466451118961458632838912308216094970703125
-0.4480967680552896403867180197266861796379089355468750000
0.0299231153289454404609060134134779218584299087524414062
-0.1771696327190359077086156958102947100996971130371093750
-1.8853228372346628738398521818453446030616760253906250000
-0.8822454468399010263368609230383299291133880615234375000
0.3644755294061426398322112163441488519310951232910156250
0.7354303845746770207369991112500429153442382812500000000
1.2529292996345666733049029062385670840740203857421875000
-9.3622697629566076216178771574050188064575195312500000000
-0.0695444040937734514473689273472700733691453933715820312
-0.0660235176438936366416498913167743012309074401855468750
0.3727936774497197514044444233149988576769828796386718750
0.5471702039130773576047772621677722781896591186523437500
0.8473065940526001149635249021230265498161315917968750000
1.1575522614287547806810607653460465371608734130859375000
0.1368486342545290890271303396730218082666397094726562500
-1.3616860839945388317318020199309103190898895263671875000
-0.7662470409620452116428168665152043104171752929687500000
0.3140441276610507204125610769551713019609451293945312500
-0.3173248948020069848396929046430159360170364379882812500
0.3300993602124621117965830308094155043363571166992187500
0.9410683365116667697947150372783653438091278076171875000
-0.3957998719920605701361182582331821322441101074218750000
-0.6168961287933165671404367458308115601539611816406250000
-2.6079948943943676020751354371896013617515563964843750000
0.0176212472304978912118755829396832268685102462768554688
0.2514272846124578353332879032677737995982170104980468750
-0.1605328040067192651996208496711915358901023864746093750
-0.0384189950912300695606838019102724501863121986389160156
-10.1327065299675673770707362564280629158020019531250000000
-0.1516602408228285847613392434141132980585098266601562500
0.0605094241949593047991129424190148711204528808593750000
-0.1625370396334674394367425520613323897123336791992187500
-4.7676187829981175880789123766589909791946411132812500000
0.7707296822857849782906214386457577347755432128906250000
-0.6864281185950017460939420743670780211687088012695312500
-0.8575051916100896454153712511470075696706771850585937500
-0.4722321785001053484620570088736712932586669921875000000
-1.2845509750039061369619730612612329423427581787109375000
2.1607885139123590434451216424349695444107055664062500000
0.4631683134994814543539121132198488339781761169433593750
0.5251349076818062622251659377070609480142593383789062500
-1.2044036298160452069794246199307963252067565917968750000
-0.8620518640678913602215516220894642174243927001953125000
-3.3036787760065231545070218999171629548072814941406250000
-0.2444142200310056578516082481655757874250411987304687500
0.1137344103088751001706668830593116581439971923828125000
2.4892145670419894010194639122346416115760803222656250000
-0.9713281381706621031568715807225089520215988159179687500
-0.3477320485828333529454425843141507357358932495117187500
0.4074779057332217346854008610534947365522384643554687500
-0.5765921674286832443456773944490123540163040161132812500
-0.4671704623552095370087045012041926383972167968750000000
0.8887948847857889411727683182107284665107727050781250000
-4.6817419536781992306373467727098613977432250976562500000
0.2165584786455392318771373538766056299209594726562500000
0.6629159140210224565592511680733878165483474731445312500
0.3543499442422765044469201711763162165880203247070312500
0.8464827660649792973046601218811701983213424682617187500
3.5237106375210411890464001771761104464530944824218750000
0.4320328646277143969101075526850763708353042602539062500
0.1969403468920125632735107501503080129623413085937500000
0.4547695307997812186329156247666105628013610839843750000
-1.6161616385865609224481431738240644335746765136718750000
1.6344228541637157992028051012312062084674835205078125000
-0.0473341880100568643263692081291083013638854026794433594
0.2109837468727714937521966476197121664881706237792968750
0.5252542144904730481158594557200558483600616455078125000
-1.7707422297951349587918912220629863440990447998046875000
0.7088330974973888753964956777053885161876678466796875000
-0.4524528159540263660964853897894499823451042175292968750
-0.2937893698295989675095540860638720914721488952636718750
-0.4525974804258532380174528952920809388160705566406250000
0.5451120000188475200886273341893684118986129760742187500
0.8062551019589778711349481454817578196525573730468750000
0.0285560428255530948660201318034523865208029747009277344
-0.8289451116399592089933889837993774563074111938476562500
-0.2453536197176124644681038944327156059443950653076171875
-0.2278847251667246165407476610198500566184520721435546875
-0.0506228921707966711407422621959995012730360031127929688
0.2168045344412317665394596133410232141613960266113281250
0.7638379639948849053610047121765092015266418457031250000
-0.0239849946681672705761645403299553436227142810821533203
-0.2975816184225936189555739019851898774504661560058593750
0.1397272569772576578106537681378540582954883575439453125
-0.0586117841958364721444141309802944306284189224243164062
-0.2303498107026834829103023594143451191484928131103515625
0.4222499016330931720375474469619803130626678466796875000
-0.0366565245098007669311002132417343091219663619995117188
-2.3205707115221350100853214826202020049095153808593750000
0.0716218242801217319648543480070657096803188323974609375
-0.2882029573270076250324223110510502010583877563476562500
-0.3753519580289313428700381791713880375027656555175781250
1.4434132870077653887364022011752240359783172607421875000
1.1266430926564832137870553196989931166172027587890625000
0.3885914611902575588331387734797317534685134887695312500
0.4833595908273546348787874649133300408720970153808593750
-0.2222152171427106970291731613542651757597923278808593750
-6.6067311984911576416834577685222029685974121093750000000
0.5441255388001176029888483753893524408340454101562500000
0.1987608886637919902717897002730751410126686096191406250
-1.2859155936829604893745226945611648261547088623046875000
-1.6239537004669792885636070423061028122901916503906250000
1.1209101998947108569382180576212704181671142578125000000
-0.5115346006857153238200908162980340421199798583984375000
1.0629923682685078478726836692658253014087677001953125000
0.1297541087708115048471313457412179559469223022460937500
-0.9678514728648638376640178648813161998987197875976562500
-0.4494884445331205347073932898638304322957992553710937500
-0.1254508068603238934990429243043763563036918640136718750
-0.2957641875097676287253989357850514352321624755859375000
0.2968036631001327307899373408872634172439575195312500000
0.1116669184302596234958926402214274276047945022583007812
0.4107508630371587421414858454227214679121971130371093750
0.2158463352165735926746492623351514339447021484375000000
0.1648031920700740449170496049191569909453392028808593750
-0.2756879534234700779293802952452097088098526000976562500
1.3950538211817393730029834841843694448471069335937500000
-1.1467115254174187199964762839954346418380737304687500000
-5.7745950761444637677755054028239101171493530273437500000
-1.3879188296887627895870309657766483724117279052734375000
1.0518771789281717854436237757909111678600311279296875000
-0.3740008716173098823887244179786648601293563842773437500
-2.5417442434537393936011540063191205263137817382812500000
1.5659815572313058318343337305122986435890197753906250000
-0.3723187721568141372863181004504440352320671081542968750
1.0948476313827446571025348021066747605800628662109375000
0.4465097280844455562842654217092785984277725219726562500
-7.1376299887012004674602394516114145517349243164062500000
2.0357539491180527413405343395425006747245788574218750000
0.5884977948928085123014852797496132552623748779296875000
1.1588466227338944936064990542945452034473419189453125000
-1.8453362382183793322099063516361638903617858886718750000
2.0342070002805088257957777386764064431190490722656250000
-1.9778643975334808668975483669782988727092742919921875000
0.7037964043260518387512547633377835154533386230468750000
0.4616687393799879801647989552293438464403152465820312500
0.8596625164086819648190385123598389327526092529296875000
-1.3027759798727593931744195288047194480895996093750000000
-0.7705840143039539569258522533345967531204223632812500000
0.5257158176834134666322029261209536343812942504882812500
0.0664711409415978810022451739314419683068990707397460938
-0.5002681599898126663106268097180873155593872070312500000
0.1517166915846258345990094085209420882165431976318359375
-2.9358721558490086245285510813118889927864074707031250000
0.4625789037378248425014248823572415858507156372070312500
0.8682981811103741565105451627459842711687088012695312500
0.3398587948266024172383481527504045516252517700195312500
1.1826225254990101465324414675706066191196441650390625000
11.8834288841214146259517292492091655731201171875000000000
-0.3117704959455161461967520608595805242657661437988281250
0.7606958918657820145625692020985297858715057373046875000
-0.4272260908229199016794552790088346228003501892089843750
-0.0509289679450825594209106839116429910063743591308593750
-0.8186351908442665026299778219254221767187118530273437500
0.2419738723040165129241074737365124747157096862792968750
-1.3489438913133313668879509350517764687538146972656250000
0.0920630019234799784610956407959747593849897384643554688
-1.8832041333481779332714722841046750545501708984375000000
-1.0763034760189384986261984522570855915546417236328125000
-0.0304273229666851587060794059880208806134760379791259766
1.2284635954131259971688905352493748068809509277343750000
1.5352162821162096406624186784029006958007812500000000000
-1.5326994420379547179322798911016434431076049804687500000
0.1790145119661104844421828374834149144589900970458984375
-0.7409203209409676027519253693753853440284729003906250000
0.0918421813001505105145128027288592420518398284912109375
-0.4204613196254838314303015067707747220993041992187500000
0.8125333479791424506899488733324687927961349487304687500
0.1125917960569565168249539510725298896431922912597656250
0.1016885000202318312112481635267613455653190612792968750
-0.4066820632296496151880660363531205803155899047851562500
-0.0590852927624336971001994811558688525110483169555664062
-0.0268938629658891509288665133681206498295068740844726562
-1.9336127975913854903922128869453445076942443847656250000
-0.0193594137370189031677192303959600394591689109802246094
-0.3870076320067075137387746508466079831123352050781250000
-0.4299759289439988307890416763257235288619995117187500000
-0.1760380062929468580890102202829439193010330200195312500
-4.3188152399383668011978443246334791183471679687500000000
0.1960079322361097664551010666400543414056301116943359375
-0.6396699622231213355760814920358825474977493286132812500
0.0748785252398858902633804746074019931256771087646484375
-1.2897534777444370490684377728030085563659667968750000000
-0.1962675434008324670820400115189841017127037048339843750
0.0686771642429020168219011566179688088595867156982421875
-0.4370822769539702279395498862868407741189002990722656250
0.0418188482366438352144655254960525780916213989257812500
0.0917190054560547973760975537516060285270214080810546875
0.1367439437772197119436157208838267251849174499511718750
0.0102974731588818535499285644618794322013854980468750000
0.0695291501858840144123519166896585375070571899414062500
-0.2521264773454826579879295422870200127363204956054687500
0.3283659936860696126892378288175677880644798278808593750
-0.1194214680555810009776607216736010741442441940307617188
0.3577034228336054555441592128772754222154617309570312500
-0.3069870598784797954827752164419507607817649841308593750
0.0036225121159013193988807088885550911072641611099243164
-0.5446274367173715713619230882613919675350189208984375000
0.1303332526166946225831821948304423131048679351806640625
-0.0949760480369300080782934969647612888365983963012695312
-0.1606279700101095608832935113241546787321567535400390625
0.1104501374813215974768354499246925115585327148437500000
0.0948018214527977798322666558306082151830196380615234375
-0.3000352418946653498821319772105198353528976440429687500
-0.1174707033779207321355642079652170650660991668701171875
-0.1440050375090989875914715412363875657320022583007812500
0.1080688341098442473153795617690775543451309204101562500
-0.0228356963929812126212759437748900381848216056823730469
-2.6161266262541063021274112543324008584022521972656250000
-0.1682084738424075298635074204867123626172542572021484375
0.3509161917187801904560728871729224920272827148437500000
0.4534623122108700776777823193697258830070495605468750000
-3.8148459263583136547026697371620684862136840820312500000
-4.2853129066938357993876707041636109352111816406250000000
-0.3768838721745829123399573745700763538479804992675781250
-0.0619136636545614127413728056126274168491363525390625000
0.5818999943515783535019636474316939711570739746093750000
3.7690699945811649840265999955590814352035522460937500000
-2.4038495850339685055985228245845064520835876464843750000
0.8379601715486921786890661678626202046871185302734375000
-0.7595933906524618972611051503918133676052093505859375000
1.4209120847804181941853585158241912722587585449218750000
0.1031000578438283771243177966425719205290079116821289062
-1.3983232952167630180895230296300724148750305175781250000
0.8754865772344470054022735894250217825174331665039062500
0.0679784904463867772905771857949730474501848220825195312
-0.4520054898102142670879288743890356272459030151367187500
0.6295673536207502252182166557759046554565429687500000000
-0.6645004211791144532739394890086259692907333374023437500
0.6115128245698784326123131904751062393188476562500000000
0.8362444499077904547235107202141080051660537719726562500
-0.6802856031184973950587391300359740853309631347656250000
-0.2989488289111743579695712469401769340038299560546875000
-7.4394189639621473020270059350878000259399414062500000000
0.1252055445144555911873851528071099892258644104003906250
-1.2928690459180265381888830233947373926639556884765625000
1.3361051607840257471337963579571805894374847412109375000
0.1394167321282137883553531310099060647189617156982421875
20.8940534156606076976459007710218429565429687500000000000
-0.4097033916679623244405661353084724396467208862304687500
-0.1233588152257522330135230959058389998972415924072265625
-0.3361489843537766586401005497464211657643318176269531250
-1.7807208764183317661888850125251337885856628417968750000
-8.7168621839393125583228538744151592254638671875000000000
-1.2164018153752138573509000707417726516723632812500000000
-1.8790764032560169916052927874261513352394104003906250000
-0.7309283044539781615256401892111171036958694458007812500
-18.4986901193840189705497323302552103996276855468750000000
-2.7839892344919294764338246750412508845329284667968750000
0.9219106347418182245689877163385972380638122558593750000
1.1791064699738829091302250162698328495025634765625000000
0.6342738693443890074519231347949244081974029541015625000
0.2777088275023567587318495952786179259419441223144531250
-1.9785366578700362971687809476861730217933654785156250000
0.2953745896029008055627684825594769790768623352050781250
2.0840965500581454250550450524315237998962402343750000000
1.3750255163573235073215528245782479643821716308593750000
1.1902287352820195565072936005890369415283203125000000000
-1.2885037611216718644868706178385764360427856445312500000
0.4167356251107445785919480840675532817840576171875000000
-0.9865274178009226790919683480751700699329376220703125000
-0.5286023119006648673945392147288657724857330322265625000
0.4593383173994171619902715519856428727507591247558593750
-3.0139239969537414687295040494063869118690490722656250000
1.3640302953012981568292616429971531033515930175781250000
-2.2974628727540222783432000142056494951248168945312500000
1.6368162724565042953628335453686304390430450439453125000
0.7484553557691331349133179173804819583892822265625000000
-10.8270973901554548035619518486782908439636230468750000000
-1.3843203209140015896849718046723864972591400146484375000
0.6086129350353504108284141693729907274246215820312500000
-0.3960505949690099058990711000660667195916175842285156250
3.8036980996507496755043575831223279237747192382812500000
0.0543702616403016619761601191385125275701284408569335938
1.2684394098738742684417957207188010215759277343750000000
1.7338553558734672854768632532795891165733337402343750000
-0.0941167774941179258174628330380073748528957366943359375
-0.4146543332944530035888419661205261945724487304687500000
-3.8486671628661937027970907365670427680015563964843750000
0.8442859231423450738773794910230208188295364379882812500
-2.6088727170390035858815735991811379790306091308593750000
-0.0235917257749364561725258226942969486117362976074218750
1.0969753454373967205270901104086078703403472900390625000
1.8012498474041223062158678658306598663330078125000000000
0.1595206985590629789051320130965905264019966125488281250
-0.4431441984222386776259838825353654101490974426269531250
-1.2185825214527026272293142028502188622951507568359375000
0.7903178701824842278256255667656660079956054687500000000
0.4744513192411707880324911457137204706668853759765625000
0.0443893255699318728391133959121361840516328811645507812
-0.6752406344309128671810071864456404000520706176757812500
0.2675500818022578108923426043475046753883361816406250000
-0.1029756702670613088823614589273347519338130950927734375
4.2191473592776018719519015576224774122238159179687500000
0.1179790088986184121155886828091752249747514724731445312
1.0224141894309417555319896564469672739505767822265625000
-1.8642188210534507142313032090896740555763244628906250000
-0.0037152462304707971341155570144110242836177349090576172
9.4359678090797949323587090475484728813171386718750000000
0.0399705774898706026054817641579575138166546821594238281
0.4881850803573135610946565066114999353885650634765625000
0.8711212295110731806957460321427788585424423217773437500
-1.2236070711706872327084738572011701762676239013671875000
1.8751776032168070429406725452281534671783447265625000000
0.0464625109336333497189741592592326924204826354980468750
0.8373154450018824856982746496214531362056732177734375000
0.4654259304479501091478255148103926330804824829101562500
1.7911231623894565689880664649535901844501495361328125000
1.2450068243036160886560992366867139935493469238281250000
-0.6531810343300556986889660038286820054054260253906250000
1.2214354669861020585841515639913268387317657470703125000
-1.2170522867958715185210394338355399668216705322265625000
-0.0719886173226692294146999984150170348584651947021484375
0.8612273047790802715795166477619204670190811157226562500
0.2845199363810802517527065447211498394608497619628906250
-1.7166663776498078952670311991823837161064147949218750000
-0.5501358151027972986923941789427772164344787597656250000
-0.5040295334745795718944805230421479791402816772460937500
-0.4028671168639625377316804133442929014563560485839843750
0.3912160937145529038261315690760966390371322631835937500
1.1511035103586455541346822428749874234199523925781250000
-0.2039202505501745144034231316254590637981891632080078125
-0.3870139796617186878080474343732930719852447509765625000
-3.0678092555395783946892152016516774892807006835937500000
0.2762896495601704360822736816771794110536575317382812500
0.7502824471431649433483812572376336902379989624023437500
0.8566852876928711113535541699093300849199295043945312500
-0.7360392569406702945045140040747355669736862182617187500
-7.3306018939128065881050133612006902694702148437500000000
-0.3558370302155415276779137911944417282938957214355468750
0.1971471071010464648498583528635208494961261749267578125
-0.5980283413952690585446703153138514608144760131835937500
-1.3292572085394003256197947848704643547534942626953125000
3.3702534686149894227469303586985915899276733398437500000
0.3274228185468550655912167712813243269920349121093750000
-0.8678410398941436287856276976526714861392974853515625000
1.5495384811117420831294566596625372767448425292968750000
3.1910492980014879549344186671078205108642578125000000000
0.2035470198446173162309946746972855180501937866210937500
0.1716084014913615840569605097698513418436050415039062500
2.0988004698585367435725856921635568141937255859375000000
1.8172723877882941412309492079657502472400665283203125000
-1.0679916019864592602317543423851020634174346923828125000
0.4310392442063846196731446980265900492668151855468750000
-0.8795308348741636139678234940220136195421218872070312500
-0.7713452661403603638490267258021049201488494873046875000
-0.2859151356288363032831512100528925657272338867187500000
0.0693878508223174095270735506346682086586952209472656250
0.5803748706352527264584750810172408819198608398437500000
0.3148187357769918759409222275280626490712165832519531250
0.4901115350050131991288537847140105441212654113769531250
-0.3758546234424678944563424920488614588975906372070312500
-0.2761852387327373703485022815584670752286911010742187500
-4.1071754555726407431848201667889952659606933593750000000
-0.6249301964675020304440522522781975567340850830078125000
0.5295469575543769735759269678965210914611816406250000000
-1.6052549652720018436014015605906024575233459472656250000
-0.3921497803338152010610428988002240657806396484375000000
19.1103550350224580256508488673716783523559570312500000000
1.0441730381989349218940787977771833539009094238281250000
-0.9053409999847902289715761980914976447820663452148437500
0.9730431472108683754740354743262287229299545288085937500
-1.8845937266153138800461874780012294650077819824218750000
4.7465261630082995480961471912451088428497314453125000000
-0.8586881046602462541628142389527056366205215454101562500
-1.4989735839445841314443441660841926932334899902343750000
0.2404715466625504394215795400668866932392120361328125000
19.4846360358063712681087054079398512840270996093750000000
-0.4638894932795893932819808469503186643123626708984375000
-0.2526096837373560388684268218639772385358810424804687500
-1.4383586447992331436296353786019608378410339355468750000
-0.1861687575202539690621961199212819337844848632812500000
-0.5722759376770651940091738651972264051437377929687500000
0.1726623739478436170280417627509450539946556091308593750
-0.4716477631538233961094874757691286504268646240234375000
-0.9686269808462567576512469713634345680475234985351562500
-1.3676358171241540517826251743827015161514282226562500000
-1.4163533452670562517994312656810507178306579589843750000
-0.0788998726080307327679363993411243427544832229614257812
0.4012489179039666065129665639688028022646903991699218750
0.6737996164105769514307553436083253473043441772460937500
-0.4872301642969915080882969959930051118135452270507812500
0.2411656198116878535575580144723062403500080108642578125
-4.1109705468290114183105288248043507337570190429687500000
-0.0703527222492092707550881414135801605880260467529296875
1.4943534021317306237364164189784787595272064208984375000
0.1520298428484520292247594852597103454172611236572265625
-0.4891577564694692403790554635634180158376693725585937500
28.8903571579973537097885127877816557884216308593750000000
0.3505827083192402660039022066484903916716575622558593750
-0.9257607091863999659864248314988799393177032470703125000
-1.0032137938544523070305558576365001499652862548828125000
-3.1351289237778927621036473283311352133750915527343750000
1.3048591031460796685337300004903227090835571289062500000
-0.0025375780966150410233872491971851559355854988098144531
-1.9854747521314179969920132862171158194541931152343750000
-0.1718151038641551331398460433774744160473346710205078125
-1.1717768848563125949624463828513398766517639160156250000
-1.0781573654915415083621610392583534121513366699218750000
0.9220352784604188833839089056709781289100646972656250000
-1.2218187332855325877289942582137882709503173828125000000
0.8006281123998745252734465793764684349298477172851562500
-2.6833756704082678545830731309251859784126281738281250000
-1.1877955709404550699304081717855297029018402099609375000
-0.4563335743844010305991787390667013823986053466796875000
-0.2731178912239348166579588905733544379472732543945312500
-0.0351212357557276616537578206589387264102697372436523438
1.4462898714282512724338403131696395576000213623046875000
0.2914232739358548762709233415080234408378601074218750000
0.2091417606907544635141960043256403878331184387207031250
-0.9521790072948089767024271168338600546121597290039062500
-0.0381621626486445056358753902259195456281304359436035156
0.4161590525465184708941990265884669497609138488769531250
